0.191406
0.031250
-0.003906
-0.054688
0.046875
0.074219
0.140625
0.203125
0.355469
0.253906
0.175781
0.097656
-0.015625
-0.433594
-0.066406
-0.074219
0.023438
-0.152344
-0.089844
-0.117188
-0.183594
0.101562
0.390625
0.332031
0.175781
-0.027344
-0.027344
-0.195312
-0.078125
-0.074219
-0.121094
0.050781
0.105469
-0.031250
-0.097656
0.066406
0.035156
-0.167969
0.125000
0.000000
-0.035156
-0.117188
-0.058594
0.085938
0.292969
0.339844
0.269531
0.144531
0.195312
-0.003906
-0.109375
-0.425781
-0.214844
0.023438
-0.011719
-0.050781
-0.203125
-0.085938
-0.210938
0.003906
0.460938
0.433594
0.195312
0.085938
-0.035156
-0.214844
-0.191406
-0.097656
-0.082031
0.070312
0.046875
0.035156
-0.089844
0.101562
0.113281
-0.015625
-0.171875
-0.082031
0.019531
0.031250
0.031250
-0.093750
-0.132812
-0.335938
-0.410156
0.015625
0.015625
-0.054688
0.171875
0.390625
0.214844
0.027344
0.000000
0.191406
0.171875
0.175781
0.144531
-0.035156
-0.156250
-0.183594
-0.062500
0.039062
0.019531
0.113281
0.144531
0.097656
0.039062
0.039062
-0.027344
-0.031250
0.132812
0.015625
-0.042969
0.097656
0.253906
0.011719
-0.136719
-0.093750
-0.164062
0.132812
0.304688
0.312500
0.449219
0.277344
0.109375
0.042969
-0.113281
-0.289062
-0.261719
-0.082031
-0.058594
-0.125000
-0.175781
-0.171875
-0.082031
0.117188
0.406250
0.546875
0.210938
0.007812
-0.066406
-0.152344
-0.210938
-0.082031
-0.109375
0.097656
0.000000
0.039062
-0.007812
0.078125
0.000000
-0.035156
0.195312
0.144531
0.031250
-0.289062
-0.277344
-0.289062
0.117188
0.269531
0.210938
0.195312
0.164062
0.105469
0.007812
-0.437500
-0.179688
-0.027344
-0.058594
-0.078125
0.066406
0.070312
-0.179688
-0.003906
0.378906
0.394531
-0.171875
-0.046875
-0.035156
0.117188
0.109375
-0.011719
-0.132812
-0.046875
-0.125000
-0.113281
-0.101562
-0.074219
-0.015625
-0.050781
0.207031
0.144531
-0.050781
-0.242188
-0.359375
-0.285156
0.117188
0.191406
0.250000
0.203125
0.078125
0.121094
0.019531
-0.382812
-0.160156
-0.003906
-0.074219
-0.011719
0.078125
0.078125
-0.054688
-0.042969
0.410156
0.320312
-0.105469
-0.207031
-0.011719
0.003906
0.062500
0.007812
-0.109375
-0.105469
-0.167969
-0.183594
-0.296875
-0.031250
-0.027344
0.085938
-0.187500
-0.093750
0.210938
0.164062
0.226562
0.078125
0.046875
-0.187500
-0.250000
-0.019531
-0.054688
-0.109375
-0.101562
0.382812
0.164062
0.085938
-0.019531
0.027344
-0.187500
-0.113281
0.304688
0.066406
-0.183594
-0.164062
0.214844
0.105469
-0.058594
0.000000
0.031250
0.101562
0.062500
0.062500
0.148438
0.203125
0.128906
0.066406
-0.011719
0.070312
0.417969
0.187500
-0.179688
-0.542969
-0.535156
-0.390625
0.093750
0.136719
0.187500
0.132812
0.187500
0.070312
-0.003906
-0.242188
-0.332031
-0.011719
0.066406
0.046875
0.171875
0.085938
-0.070312
-0.019531
0.242188
0.324219
-0.093750
-0.164062
-0.003906
0.082031
0.117188
-0.011719
-0.074219
-0.175781
-0.074219
-0.144531
-0.160156
-0.085938
0.058594
-0.042969
-0.156250
-0.050781
-0.117188
-0.140625
-0.039062
0.046875
-0.039062
-0.023438
-0.093750
-0.277344
-0.218750
-0.171875
-0.097656
-0.152344
-0.121094
0.023438
0.027344
-0.070312
-0.023438
-0.156250
-0.402344
-0.367188
-0.144531
-0.066406
-0.378906
-0.218750
-0.070312
0.035156
-0.015625
0.031250
-0.097656
-0.039062
0.035156
0.015625
-0.015625
0.027344
0.281250
0.230469
-0.062500
-0.093750
-0.054688
-0.062500
-0.042969
-0.058594
0.007812
-0.031250
-0.140625
-0.238281
-0.062500
-0.128906
-0.089844
-0.277344
-0.054688
0.093750
0.042969
-0.070312
0.070312
-0.199219
-0.421875
-0.289062
-0.152344
-0.164062
-0.281250
-0.105469
0.023438
-0.078125
-0.031250
-0.007812
0.046875
0.023438
-0.023438
0.046875
0.070312
0.105469
0.285156
0.226562
-0.046875
-0.070312
-0.050781
0.019531
-0.027344
-0.082031
-0.125000
-0.085938
0.066406
0.031250
0.125000
0.031250
-0.031250
0.191406
-0.031250
-0.105469
-0.042969
-0.113281
-0.007812
0.125000
0.417969
0.132812
0.011719
0.027344
0.148438
-0.015625
-0.082031
-0.011719
-0.031250
-0.125000
-0.164062
-0.121094
-0.238281
-0.144531
-0.238281
-0.160156
-0.269531
-0.222656
-0.093750
0.007812
0.078125
0.093750
0.066406
0.023438
0.085938
0.078125
-0.117188
-0.105469
-0.152344
-0.042969
-0.078125
-0.136719
0.117188
0.058594
0.062500
0.031250
0.046875
-0.191406
-0.417969
-0.218750
-0.082031
-0.023438
-0.156250
-0.058594
0.039062
0.062500
0.097656
0.050781
0.093750
0.097656
0.078125
0.195312
0.179688
0.097656
0.210938
0.207031
-0.023438
0.089844
-0.027344
-0.132812
-0.230469
0.093750
0.269531
0.027344
-0.121094
0.101562
0.187500
0.113281
0.140625
0.222656
0.085938
-0.128906
-0.164062
0.023438
-0.039062
0.070312
0.027344
0.000000
-0.265625
-0.390625
-0.320312
-0.214844
-0.210938
-0.027344
-0.085938
-0.136719
-0.097656
0.089844
0.027344
-0.156250
-0.132812
0.011719
-0.140625
-0.156250
0.113281
0.054688
0.046875
-0.113281
-0.171875
0.054688
0.269531
0.148438
0.019531
0.093750
0.152344
0.097656
0.246094
0.386719
0.015625
-0.093750
-0.140625
-0.066406
0.058594
0.031250
0.062500
-0.117188
-0.269531
-0.324219
-0.273438
-0.250000
-0.097656
-0.015625
0.015625
-0.027344
-0.062500
0.117188
0.089844
-0.015625
-0.132812
-0.101562
0.035156
-0.101562
-0.207031
-0.125000
-0.144531
-0.117188
-0.093750
-0.250000
-0.476562
-0.335938
-0.023438
-0.285156
-0.320312
-0.339844
-0.371094
-0.539062
-0.257812
-0.011719
-0.011719
-0.187500
-0.210938
-0.175781
-0.226562
0.003906
0.007812
0.101562
0.117188
0.015625
-0.082031
-0.066406
-0.050781
-0.078125
-0.164062
-0.300781
-0.312500
-0.113281
-0.164062
-0.207031
-0.074219
-0.058594
0.179688
0.109375
-0.023438
-0.058594
-0.097656
0.164062
0.378906
0.082031
-0.003906
0.046875
0.210938
0.296875
0.246094
0.312500
0.164062
0.003906
-0.058594
0.007812
0.042969
0.066406
0.234375
0.078125
-0.117188
-0.292969
-0.308594
-0.179688
-0.136719
0.078125
-0.046875
-0.019531
0.121094
0.074219
0.113281
0.007812
0.113281
0.097656
0.050781
-0.003906
0.035156
-0.070312
-0.007812
-0.050781
-0.062500
-0.144531
-0.105469
-0.007812
0.015625
-0.074219
-0.218750
-0.113281
0.062500
0.371094
0.101562
0.042969
-0.203125
-0.312500
-0.250000
-0.152344
0.054688
-0.273438
-0.406250
-0.125000
0.160156
-0.062500
0.054688
0.136719
0.140625
0.074219
-0.007812
0.062500
-0.078125
-0.019531
0.113281
-0.015625
0.035156
0.093750
-0.035156
-0.031250
0.046875
0.011719
-0.039062
-0.132812
-0.156250
0.074219
0.078125
-0.136719
-0.187500
-0.011719
0.242188
0.460938
0.128906
0.054688
-0.105469
-0.402344
-0.410156
-0.199219
0.031250
-0.367188
-0.492188
-0.156250
0.085938
0.023438
-0.046875
0.105469
0.097656
0.082031
-0.003906
0.007812
-0.070312
0.054688
0.082031
0.128906
0.085938
0.230469
-0.066406
0.007812
-0.085938
0.058594
0.027344
0.054688
0.160156
-0.210938
-0.179688
0.003906
0.082031
-0.007812
-0.015625
-0.437500
-0.125000
0.015625
0.128906
0.328125
0.234375
-0.054688
-0.082031
0.039062
0.160156
0.070312
-0.226562
0.039062
0.027344
-0.265625
-0.207031
-0.093750
-0.179688
-0.148438
-0.031250
-0.113281
-0.113281
-0.007812
0.039062
-0.085938
0.070312
0.085938
0.023438
-0.078125
-0.167969
-0.253906
-0.144531
-0.121094
-0.007812
-0.085938
-0.101562
-0.042969
0.207031
0.656250
0.269531
0.191406
-0.183594
-0.363281
-0.332031
-0.125000
0.085938
-0.269531
-0.316406
-0.101562
0.101562
0.046875
0.007812
0.125000
0.101562
0.015625
0.125000
-0.070312
-0.117188
0.027344
0.054688
0.019531
-0.023438
0.132812
0.070312
0.019531
0.042969
-0.054688
-0.167969
-0.207031
-0.183594
-0.058594
-0.152344
-0.105469
-0.226562
-0.210938
-0.222656
-0.074219
0.117188
0.011719
0.019531
-0.121094
-0.042969
0.015625
0.050781
0.093750
0.000000
-0.156250
-0.125000
-0.101562
-0.195312
-0.179688
-0.046875
0.015625
0.054688
-0.132812
-0.054688
-0.109375
-0.082031
-0.058594
-0.019531
-0.097656
-0.042969
-0.003906
-0.027344
0.007812
-0.089844
-0.187500
-0.019531
0.015625
-0.050781
-0.046875
-0.140625
-0.121094
-0.167969
-0.054688
0.132812
0.085938
-0.023438
0.054688
0.011719
-0.031250
0.156250
0.085938
0.019531
-0.152344
-0.113281
-0.109375
-0.210938
-0.054688
-0.074219
-0.031250
-0.035156
-0.007812
-0.039062
-0.101562
-0.097656
-0.054688
0.089844
0.089844
-0.281250
-0.234375
-0.214844
-0.156250
-0.078125
-0.109375
-0.101562
-0.210938
-0.148438
-0.007812
-0.074219
-0.074219
0.050781
-0.167969
-0.261719
-0.121094
-0.207031
-0.066406
-0.019531
-0.078125
-0.273438
-0.234375
-0.210938
-0.031250
-0.183594
-0.136719
0.003906
-0.179688
-0.105469
-0.167969
-0.242188
-0.125000
-0.164062
-0.121094
-0.203125
-0.066406
-0.218750
-0.214844
0.023438
0.085938
0.031250
0.191406
0.097656
0.082031
0.011719
-0.039062
0.000000
0.000000
-0.128906
-0.187500
-0.214844
-0.019531
0.054688
0.167969
0.109375
0.128906
0.023438
0.082031
0.265625
0.261719
0.117188
0.035156
-0.074219
-0.058594
-0.121094
0.000000
-0.003906
0.148438
0.050781
0.011719
0.148438
0.093750
0.082031
0.007812
0.050781
0.054688
-0.031250
-0.031250
-0.066406
-0.046875
-0.066406
-0.179688
-0.316406
-0.046875
0.140625
-0.070312
-0.210938
-0.183594
-0.210938
-0.128906
0.027344
0.007812
-0.058594
-0.085938
0.031250
0.000000
0.261719
0.367188
0.140625
0.070312
0.109375
-0.121094
-0.265625
-0.339844
-0.199219
-0.289062
-0.136719
-0.109375
-0.222656
-0.218750
-0.121094
0.062500
-0.101562
-0.144531
0.019531
0.039062
0.035156
0.042969
0.042969
-0.136719
-0.199219
-0.082031
0.125000
0.000000
-0.214844
-0.156250
-0.250000
-0.039062
0.054688
-0.050781
0.031250
-0.031250
-0.007812
0.050781
0.289062
0.347656
0.136719
0.199219
0.156250
-0.109375
-0.210938
-0.230469
-0.160156
-0.210938
-0.160156
-0.136719
-0.179688
-0.097656
-0.109375
0.136719
-0.054688
-0.101562
-0.117188
-0.113281
0.015625
-0.097656
-0.156250
-0.042969
0.089844
-0.203125
-0.226562
-0.082031
0.027344
0.035156
0.015625
0.035156
-0.109375
-0.031250
-0.105469
-0.062500
-0.082031
-0.078125
-0.585938
-0.488281
-0.332031
-0.281250
-0.171875
-0.109375
0.136719
0.054688
-0.070312
-0.019531
-0.042969
-0.015625
-0.085938
0.039062
-0.085938
-0.246094
-0.128906
0.000000
-0.042969
0.050781
-0.019531
0.027344
0.007812
-0.003906
-0.144531
0.195312
0.257812
0.031250
-0.156250
-0.167969
-0.144531
-0.246094
-0.101562
0.003906
-0.042969
-0.074219
-0.066406
0.050781
0.386719
0.621094
0.429688
0.367188
0.187500
-0.097656
-0.214844
-0.203125
-0.207031
-0.128906
-0.105469
-0.003906
-0.031250
-0.042969
0.000000
0.046875
0.039062
0.074219
-0.042969
-0.105469
-0.144531
-0.257812
-0.316406
-0.074219
-0.035156
-0.101562
-0.140625
-0.082031
-0.058594
-0.035156
-0.308594
-0.281250
-0.050781
-0.023438
0.015625
-0.015625
-0.058594
-0.105469
-0.070312
0.042969
-0.019531
0.042969
-0.050781
-0.175781
-0.015625
-0.031250
-0.054688
-0.156250
-0.117188
-0.183594
-0.042969
-0.121094
-0.195312
-0.285156
-0.066406
-0.085938
0.054688
-0.058594
-0.058594
-0.144531
-0.242188
-0.167969
0.046875
0.019531
-0.125000
-0.031250
0.046875
-0.097656
-0.289062
-0.242188
0.062500
0.031250
0.097656
-0.015625
0.042969
0.019531
-0.007812
-0.015625
0.003906
0.007812
-0.160156
-0.089844
-0.058594
0.078125
0.011719
-0.089844
-0.105469
0.015625
0.031250
0.000000
-0.109375
-0.062500
-0.070312
0.050781
-0.289062
-0.187500
-0.093750
-0.070312
-0.007812
-0.253906
-0.371094
-0.378906
-0.082031
-0.109375
-0.238281
-0.132812
-0.062500
-0.070312
-0.285156
-0.191406
-0.207031
-0.234375
-0.160156
-0.144531
-0.183594
-0.203125
-0.300781
-0.425781
-0.175781
-0.109375
-0.210938
-0.312500
-0.312500
-0.269531
-0.242188
-0.226562
-0.300781
-0.335938
-0.191406
-0.156250
-0.222656
-0.269531
0.097656
0.031250
-0.093750
-0.191406
-0.191406
-0.011719
0.195312
0.167969
0.027344
0.093750
0.031250
-0.019531
-0.171875
-0.335938
0.011719
0.121094
0.082031
0.136719
0.085938
0.015625
-0.046875
0.125000
0.160156
0.066406
-0.082031
0.007812
0.035156
0.121094
0.050781
-0.011719
-0.117188
0.007812
0.058594
0.187500
0.042969
0.074219
0.167969
0.105469
-0.015625
-0.027344
-0.117188
0.023438
0.171875
0.300781
0.277344
-0.011719
-0.359375
-0.269531
-0.179688
-0.167969
-0.039062
-0.105469
-0.031250
0.023438
-0.019531
0.078125
0.070312
0.207031
0.246094
0.304688
0.242188
0.324219
0.207031
0.066406
0.167969
0.058594
0.042969
0.050781
-0.031250
-0.070312
-0.121094
-0.078125
-0.140625
-0.207031
-0.097656
-0.066406
-0.015625
-0.097656
-0.054688
0.035156
0.199219
0.363281
0.250000
-0.136719
-0.332031
-0.140625
-0.210938
-0.035156
-0.039062
-0.031250
-0.101562
-0.117188
-0.019531
0.074219
0.128906
0.269531
0.367188
0.300781
0.207031
0.347656
0.152344
0.117188
0.027344
0.078125
0.171875
-0.039062
-0.066406
-0.046875
0.000000
-0.046875
-0.164062
-0.183594
-0.089844
-0.203125
0.148438
0.148438
0.128906
-0.031250
-0.195312
-0.300781
-0.289062
0.160156
0.320312
0.097656
0.058594
-0.042969
-0.019531
-0.019531
-0.042969
-0.046875
-0.117188
-0.105469
-0.066406
-0.312500
-0.406250
-0.218750
-0.246094
-0.332031
-0.160156
-0.160156
-0.191406
-0.164062
-0.144531
-0.109375
-0.003906
0.023438
0.031250
0.007812
-0.027344
0.078125
0.042969
0.128906
-0.042969
-0.113281
-0.019531
0.007812
0.246094
0.402344
0.296875
-0.085938
-0.210938
-0.207031
-0.191406
-0.148438
-0.046875
-0.113281
-0.152344
-0.023438
0.015625
-0.007812
0.195312
0.277344
0.457031
0.292969
0.167969
0.351562
0.171875
0.171875
0.046875
0.066406
0.066406
-0.093750
-0.167969
-0.070312
-0.121094
0.058594
-0.031250
-0.023438
0.019531
-0.050781
0.082031
0.062500
-0.035156
0.019531
-0.019531
0.199219
0.226562
0.097656
0.203125
0.253906
0.273438
0.242188
0.160156
0.175781
0.054688
0.023438
0.136719
0.074219
0.171875
0.132812
0.148438
0.394531
0.273438
0.042969
-0.089844
-0.031250
-0.007812
0.085938
0.000000
-0.140625
-0.058594
-0.089844
-0.042969
-0.039062
-0.027344
0.003906
0.054688
0.125000
0.039062
0.074219
-0.003906
-0.011719
0.015625
0.121094
0.171875
0.027344
0.074219
0.242188
0.234375
0.128906
0.093750
0.179688
0.015625
0.015625
0.046875
0.140625
0.148438
0.214844
0.089844
0.332031
0.214844
-0.093750
-0.066406
0.039062
0.027344
-0.082031
-0.019531
-0.097656
-0.261719
-0.238281
-0.207031
-0.101562
-0.023438
-0.156250
-0.019531
0.062500
0.347656
0.253906
0.312500
0.210938
0.171875
0.242188
0.132812
0.273438
0.332031
0.062500
-0.003906
0.089844
0.144531
0.144531
-0.003906
0.113281
0.125000
-0.019531
0.011719
0.031250
0.179688
-0.007812
0.125000
0.382812
0.402344
0.289062
0.292969
0.246094
0.367188
0.285156
0.332031
0.398438
0.363281
0.226562
0.296875
0.316406
0.265625
0.101562
-0.054688
-0.093750
-0.085938
-0.316406
-0.382812
-0.285156
-0.085938
-0.171875
-0.097656
0.125000
0.015625
-0.156250
-0.222656
-0.156250
-0.183594
-0.238281
-0.148438
0.105469
0.210938
0.175781
0.093750
0.199219
0.128906
-0.218750
-0.367188
-0.277344
-0.128906
-0.101562
-0.226562
-0.167969
-0.292969
-0.437500
-0.472656
-0.347656
-0.414062
-0.281250
-0.105469
-0.054688
0.164062
0.250000
0.210938
-0.050781
-0.195312
-0.140625
0.121094
0.179688
0.269531
0.226562
0.035156
0.054688
0.050781
-0.007812
-0.019531
-0.035156
-0.101562
-0.003906
-0.074219
0.097656
0.085938
0.039062
-0.027344
-0.121094
0.039062
0.046875
-0.078125
-0.066406
0.179688
0.171875
0.152344
0.085938
0.015625
0.023438
-0.019531
0.113281
0.214844
0.281250
0.281250
0.148438
0.128906
-0.023438
-0.089844
-0.140625
0.136719
0.054688
0.199219
0.242188
-0.035156
0.003906
-0.109375
-0.164062
-0.066406
-0.093750
-0.003906
-0.046875
-0.070312
0.015625
0.023438
0.035156
0.015625
-0.109375
-0.070312
-0.070312
-0.003906
-0.054688
0.082031
0.183594
0.058594
-0.046875
-0.031250
0.125000
0.070312
0.007812
0.125000
0.093750
-0.054688
-0.058594
0.070312
0.207031
0.316406
0.390625
0.289062
0.167969
0.093750
-0.050781
0.121094
0.269531
0.164062
0.343750
0.242188
0.097656
0.207031
0.250000
0.277344
0.113281
0.183594
0.175781
0.105469
0.187500
0.253906
0.191406
0.214844
0.218750
0.058594
0.015625
0.175781
0.132812
0.230469
0.140625
0.253906
0.128906
0.082031
0.003906
0.269531
0.363281
0.105469
-0.203125
-0.417969
-0.234375
0.156250
0.371094
0.402344
0.105469
0.000000
-0.218750
-0.355469
-0.273438
-0.183594
-0.128906
-0.125000
-0.167969
-0.128906
-0.003906
-0.035156
-0.105469
-0.136719
-0.238281
-0.195312
-0.085938
-0.125000
-0.125000
0.015625
0.003906
0.023438
-0.121094
-0.097656
-0.046875
-0.179688
-0.101562
-0.097656
0.046875
0.093750
0.031250
0.109375
-0.027344
-0.214844
-0.292969
-0.148438
0.078125
0.054688
0.179688
0.175781
0.011719
0.070312
0.308594
0.292969
0.035156
-0.226562
-0.347656
-0.195312
0.039062
-0.003906
0.003906
-0.109375
0.019531
0.023438
-0.085938
0.023438
0.085938
0.140625
0.089844
-0.058594
-0.027344
0.039062
0.054688
0.105469
-0.093750
0.066406
0.101562
0.058594
0.000000
0.023438
0.031250
-0.179688
-0.300781
-0.027344
0.132812
0.078125
0.195312
0.199219
0.078125
0.054688
0.304688
0.273438
-0.003906
-0.253906
-0.375000
-0.203125
-0.093750
-0.035156
-0.074219
-0.070312
-0.105469
0.011719
-0.039062
0.101562
0.093750
0.074219
0.113281
-0.015625
-0.042969
0.039062
0.066406
0.125000
-0.132812
-0.035156
0.125000
-0.183594
-0.011719
-0.136719
0.082031
0.136719
0.156250
-0.082031
-0.082031
-0.066406
-0.164062
-0.062500
-0.019531
0.003906
-0.199219
-0.378906
-0.117188
0.062500
0.117188
0.019531
-0.160156
-0.023438
0.027344
-0.042969
-0.097656
-0.105469
-0.050781
-0.117188
-0.160156
-0.199219
-0.082031
-0.050781
-0.082031
-0.078125
-0.121094
-0.105469
-0.019531
-0.023438
-0.046875
0.105469
0.160156
0.097656
-0.101562
-0.437500
-0.531250
-0.312500
-0.136719
0.101562
0.160156
0.132812
0.117188
0.214844
0.375000
0.441406
0.093750
-0.218750
-0.402344
-0.250000
-0.078125
0.007812
0.003906
-0.113281
-0.097656
-0.105469
-0.183594
-0.039062
0.050781
0.054688
0.082031
0.042969
-0.121094
0.078125
0.042969
0.039062
-0.050781
0.070312
0.070312
0.066406
0.046875
0.027344
-0.074219
-0.257812
-0.136719
0.109375
0.125000
0.210938
-0.058594
-0.152344
-0.167969
0.046875
0.171875
-0.136719
-0.144531
-0.128906
-0.308594
-0.234375
0.054688
0.218750
0.035156
0.117188
0.394531
0.242188
-0.042969
-0.085938
-0.105469
-0.078125
-0.093750
-0.011719
0.039062
-0.117188
-0.066406
0.046875
0.101562
0.007812
-0.027344
0.125000
0.085938
0.011719
-0.105469
-0.125000
-0.062500
0.109375
0.195312
0.285156
-0.007812
-0.101562
-0.070312
-0.097656
0.195312
-0.015625
-0.062500
-0.179688
-0.289062
-0.257812
-0.035156
0.113281
0.046875
0.148438
0.289062
0.312500
-0.027344
-0.085938
-0.136719
-0.132812
0.031250
0.062500
0.023438
-0.125000
-0.093750
0.046875
0.148438
-0.066406
-0.066406
-0.207031
-0.074219
-0.050781
0.097656
0.222656
0.062500
-0.175781
-0.253906
-0.378906
-0.066406
0.042969
0.085938
-0.085938
-0.070312
-0.011719
0.109375
0.160156
0.222656
0.292969
-0.074219
-0.175781
-0.027344
-0.050781
-0.253906
-0.363281
-0.003906
0.058594
0.109375
0.000000
0.046875
-0.089844
-0.011719
0.050781
0.054688
-0.148438
-0.132812
-0.015625
-0.031250
0.343750
0.085938
-0.023438
-0.246094
-0.421875
-0.214844
0.117188
0.507812
0.500000
0.160156
0.035156
-0.007812
-0.039062
0.179688
0.093750
-0.054688
-0.210938
-0.312500
-0.332031
-0.074219
0.085938
-0.046875
0.218750
0.429688
0.492188
0.050781
0.000000
-0.140625
-0.128906
-0.011719
0.085938
-0.085938
-0.058594
-0.046875
0.070312
0.035156
-0.015625
0.078125
0.000000
-0.046875
-0.011719
0.191406
0.207031
0.117188
0.175781
0.054688
-0.113281
-0.140625
-0.078125
-0.074219
-0.074219
-0.078125
0.097656
0.078125
-0.007812
0.031250
0.140625
0.132812
0.039062
0.203125
0.214844
0.074219
0.054688
0.296875
0.234375
0.183594
0.128906
0.128906
0.140625
0.156250
0.246094
0.171875
0.046875
-0.031250
0.035156
-0.093750
-0.011719
0.070312
0.089844
0.054688
0.183594
0.218750
0.195312
-0.023438
-0.183594
-0.203125
-0.054688
-0.019531
-0.152344
-0.226562
-0.031250
0.046875
0.054688
0.003906
0.164062
0.199219
0.062500
0.125000
0.324219
0.109375
0.015625
0.160156
0.250000
0.292969
0.214844
0.152344
0.000000
0.160156
0.203125
0.128906
0.128906
0.027344
-0.082031
0.031250
0.234375
0.183594
0.019531
-0.007812
0.058594
-0.058594
0.011719
0.238281
0.316406
0.257812
0.167969
0.210938
0.187500
0.421875
0.089844
0.089844
0.140625
0.191406
0.007812
-0.039062
0.160156
0.105469
-0.031250
0.082031
0.167969
-0.054688
0.007812
0.050781
-0.003906
0.007812
0.109375
-0.023438
-0.027344
0.031250
0.066406
0.199219
0.078125
0.144531
-0.218750
-0.195312
-0.031250
0.027344
0.062500
0.113281
0.105469
-0.214844
-0.324219
-0.250000
-0.195312
-0.253906
-0.339844
-0.542969
-0.246094
-0.093750
-0.007812
-0.089844
0.082031
0.097656
-0.058594
0.066406
0.140625
0.125000
-0.101562
0.128906
0.156250
0.070312
0.125000
-0.019531
-0.042969
-0.015625
0.101562
0.046875
0.019531
-0.128906
-0.089844
-0.195312
0.078125
0.093750
0.113281
0.011719
-0.066406
-0.066406
-0.117188
-0.140625
-0.109375
0.058594
0.058594
-0.121094
-0.207031
-0.320312
-0.152344
-0.050781
-0.054688
0.125000
0.027344
-0.019531
-0.179688
-0.015625
-0.062500
-0.015625
-0.042969
0.191406
0.101562
-0.019531
-0.046875
0.156250
0.152344
0.082031
0.042969
-0.046875
-0.039062
0.050781
0.015625
0.011719
0.003906
0.136719
0.164062
0.078125
-0.097656
-0.058594
-0.156250
-0.144531
-0.113281
-0.019531
0.027344
-0.050781
-0.164062
-0.410156
-0.132812
-0.121094
0.011719
0.148438
0.027344
0.019531
-0.109375
-0.113281
-0.058594
-0.097656
-0.046875
0.117188
0.187500
0.070312
-0.042969
0.117188
0.222656
0.015625
0.007812
0.054688
0.085938
0.082031
0.015625
-0.054688
0.023438
-0.039062
0.000000
0.085938
0.089844
0.089844
0.320312
0.304688
0.089844
-0.031250
-0.003906
0.101562
0.097656
0.402344
0.328125
0.195312
0.144531
-0.042969
-0.035156
0.070312
0.320312
0.089844
0.066406
0.160156
0.117188
0.003906
-0.132812
-0.105469
-0.023438
-0.070312
-0.054688
0.011719
0.023438
0.082031
-0.046875
0.003906
-0.058594
0.011719
0.156250
0.171875
0.179688
0.046875
-0.062500
0.023438
-0.089844
-0.152344
-0.019531
0.003906
0.050781
0.039062
-0.062500
-0.410156
-0.277344
-0.113281
0.101562
0.074219
0.136719
-0.035156
-0.183594
0.000000
0.042969
-0.117188
-0.023438
0.082031
0.085938
0.160156
0.054688
0.187500
0.183594
0.078125
0.101562
0.105469
0.093750
0.093750
0.031250
0.035156
-0.039062
0.089844
0.105469
0.066406
-0.156250
-0.429688
-0.328125
-0.082031
0.140625
0.207031
0.121094
0.218750
0.265625
0.097656
0.148438
0.140625
0.148438
-0.089844
-0.191406
0.089844
-0.097656
-0.191406
0.023438
0.160156
0.019531
-0.031250
-0.023438
-0.003906
0.066406
0.078125
-0.015625
-0.058594
0.003906
0.050781
0.003906
-0.085938
-0.117188
0.007812
0.007812
0.050781
0.144531
0.097656
-0.070312
-0.363281
-0.496094
-0.007812
0.269531
0.253906
0.195312
0.207031
0.265625
0.082031
0.187500
0.214844
0.160156
-0.152344
-0.171875
0.097656
-0.070312
-0.253906
-0.003906
0.113281
0.078125
-0.105469
-0.058594
0.125000
0.105469
0.058594
-0.062500
-0.062500
-0.070312
0.007812
-0.054688
-0.070312
-0.121094
-0.011719
0.109375
0.121094
-0.019531
-0.050781
0.222656
0.347656
0.421875
0.046875
-0.253906
-0.089844
0.023438
-0.132812
-0.140625
-0.015625
-0.023438
-0.117188
-0.058594
0.238281
0.234375
0.058594
-0.050781
0.207031
0.109375
-0.082031
-0.101562
0.105469
0.066406
-0.015625
-0.132812
-0.046875
0.050781
0.132812
0.128906
0.023438
0.066406
0.101562
0.011719
-0.027344
0.066406
-0.046875
0.042969
-0.070312
-0.457031
-0.785156
-0.722656
-0.058594
0.179688
0.085938
0.105469
0.046875
0.011719
0.125000
0.199219
0.144531
-0.039062
-0.113281
-0.109375
-0.058594
-0.140625
-0.218750
-0.031250
0.085938
0.117188
-0.125000
-0.007812
0.078125
0.148438
0.058594
-0.085938
-0.074219
-0.093750
-0.058594
-0.121094
-0.046875
-0.148438
-0.117188
